digraph Tree {
node [shape=box] ;
0 [label="exang <= 0.427\ngini = 0.457\nsamples = 238\nvalue = [154, 84]"] ;
1 [label="chol <= 3.527\ngini = 0.279\nsamples = 167\nvalue = [139, 28]"] ;
0 -> 1 [labeldistance=2.5, labelangle=45, headlabel="True"] ;
2 [label="age <= 1.882\ngini = 0.265\nsamples = 165\nvalue = [139, 26]"] ;
1 -> 2 ;
3 [label="sex M=1 F=0 <= -0.502\ngini = 0.258\nsamples = 164\nvalue = [139, 25]"] ;
2 -> 3 ;
4 [label="trestbps <= 0.052\ngini = 0.133\nsamples = 56\nvalue = [52, 4]"] ;
3 -> 4 ;
5 [label="age <= 0.984\ngini = 0.046\nsamples = 42\nvalue = [41, 1]"] ;
4 -> 5 ;
6 [label="gini = 0.0\nsamples = 38\nvalue = [38, 0]"] ;
5 -> 6 ;
7 [label="trestbps <= -0.432\ngini = 0.375\nsamples = 4\nvalue = [3, 1]"] ;
5 -> 7 ;
8 [label="gini = 0.0\nsamples = 1\nvalue = [0, 1]"] ;
7 -> 8 ;
9 [label="gini = 0.0\nsamples = 3\nvalue = [3, 0]"] ;
7 -> 9 ;
10 [label="fbs <= 1.849\ngini = 0.337\nsamples = 14\nvalue = [11, 3]"] ;
4 -> 10 ;
11 [label="chol <= 1.56\ngini = 0.26\nsamples = 13\nvalue = [11, 2]"] ;
10 -> 11 ;
12 [label="chol <= -1.046\ngini = 0.153\nsamples = 12\nvalue = [11, 1]"] ;
11 -> 12 ;
13 [label="thalach <= 0.59\ngini = 0.5\nsamples = 2\nvalue = [1, 1]"] ;
12 -> 13 ;
14 [label="gini = 0.0\nsamples = 1\nvalue = [1, 0]"] ;
13 -> 14 ;
15 [label="gini = 0.0\nsamples = 1\nvalue = [0, 1]"] ;
13 -> 15 ;
16 [label="gini = 0.0\nsamples = 10\nvalue = [10, 0]"] ;
12 -> 16 ;
17 [label="gini = 0.0\nsamples = 1\nvalue = [0, 1]"] ;
11 -> 17 ;
18 [label="gini = 0.0\nsamples = 1\nvalue = [0, 1]"] ;
10 -> 18 ;
19 [label="thalach <= -1.877\ngini = 0.313\nsamples = 108\nvalue = [87, 21]"] ;
3 -> 19 ;
20 [label="gini = 0.0\nsamples = 1\nvalue = [0, 1]"] ;
19 -> 20 ;
21 [label="trestbps <= 0.849\ngini = 0.304\nsamples = 107\nvalue = [87, 20]"] ;
19 -> 21 ;
22 [label="chol <= 0.696\ngini = 0.34\nsamples = 92\nvalue = [72, 20]"] ;
21 -> 22 ;
23 [label="chol <= 0.087\ngini = 0.369\nsamples = 82\nvalue = [62, 20]"] ;
22 -> 23 ;
24 [label="chol <= -0.406\ngini = 0.285\nsamples = 58\nvalue = [48, 10]"] ;
23 -> 24 ;
25 [label="thalach <= -0.282\ngini = 0.397\nsamples = 33\nvalue = [24, 9]"] ;
24 -> 25 ;
26 [label="thalach <= -1.558\ngini = 0.494\nsamples = 9\nvalue = [4, 5]"] ;
25 -> 26 ;
27 [label="gini = 0.0\nsamples = 3\nvalue = [3, 0]"] ;
26 -> 27 ;
28 [label="fbs <= 1.71\ngini = 0.278\nsamples = 6\nvalue = [1, 5]"] ;
26 -> 28 ;
29 [label="gini = 0.0\nsamples = 5\nvalue = [0, 5]"] ;
28 -> 29 ;
30 [label="gini = 0.0\nsamples = 1\nvalue = [1, 0]"] ;
28 -> 30 ;
31 [label="chol <= -0.753\ngini = 0.278\nsamples = 24\nvalue = [20, 4]"] ;
25 -> 31 ;
32 [label="thalach <= 1.568\ngini = 0.124\nsamples = 15\nvalue = [14, 1]"] ;
31 -> 32 ;
33 [label="gini = 0.0\nsamples = 13\nvalue = [13, 0]"] ;
32 -> 33 ;
34 [label="trestbps <= 0.138\ngini = 0.5\nsamples = 2\nvalue = [1, 1]"] ;
32 -> 34 ;
35 [label="gini = 0.0\nsamples = 1\nvalue = [1, 0]"] ;
34 -> 35 ;
36 [label="gini = 0.0\nsamples = 1\nvalue = [0, 1]"] ;
34 -> 36 ;
37 [label="age <= -0.106\ngini = 0.444\nsamples = 9\nvalue = [6, 3]"] ;
31 -> 37 ;
38 [label="gini = 0.0\nsamples = 5\nvalue = [5, 0]"] ;
37 -> 38 ;
39 [label="trestbps <= -0.859\ngini = 0.375\nsamples = 4\nvalue = [1, 3]"] ;
37 -> 39 ;
40 [label="gini = 0.0\nsamples = 1\nvalue = [1, 0]"] ;
39 -> 40 ;
41 [label="gini = 0.0\nsamples = 3\nvalue = [0, 3]"] ;
39 -> 41 ;
42 [label="age <= 1.433\ngini = 0.077\nsamples = 25\nvalue = [24, 1]"] ;
24 -> 42 ;
43 [label="gini = 0.0\nsamples = 24\nvalue = [24, 0]"] ;
42 -> 43 ;
44 [label="gini = 0.0\nsamples = 1\nvalue = [0, 1]"] ;
42 -> 44 ;
45 [label="chol <= 0.265\ngini = 0.486\nsamples = 24\nvalue = [14, 10]"] ;
23 -> 45 ;
46 [label="age <= 0.407\ngini = 0.408\nsamples = 7\nvalue = [2, 5]"] ;
45 -> 46 ;
47 [label="gini = 0.0\nsamples = 5\nvalue = [0, 5]"] ;
46 -> 47 ;
48 [label="gini = 0.0\nsamples = 2\nvalue = [2, 0]"] ;
46 -> 48 ;
49 [label="fbs <= 1.71\ngini = 0.415\nsamples = 17\nvalue = [12, 5]"] ;
45 -> 49 ;
50 [label="chol <= 0.426\ngini = 0.375\nsamples = 16\nvalue = [12, 4]"] ;
49 -> 50 ;
51 [label="gini = 0.0\nsamples = 5\nvalue = [5, 0]"] ;
50 -> 51 ;
52 [label="chol <= 0.488\ngini = 0.463\nsamples = 11\nvalue = [7, 4]"] ;
50 -> 52 ;
53 [label="gini = 0.0\nsamples = 2\nvalue = [0, 2]"] ;
52 -> 53 ;
54 [label="age <= -0.747\ngini = 0.346\nsamples = 9\nvalue = [7, 2]"] ;
52 -> 54 ;
55 [label="gini = 0.0\nsamples = 5\nvalue = [5, 0]"] ;
54 -> 55 ;
56 [label="gini = 0.5\nsamples = 4\nvalue = [2, 2]"] ;
54 -> 56 ;
57 [label="gini = 0.0\nsamples = 1\nvalue = [0, 1]"] ;
49 -> 57 ;
58 [label="gini = 0.0\nsamples = 10\nvalue = [10, 0]"] ;
22 -> 58 ;
59 [label="gini = 0.0\nsamples = 15\nvalue = [15, 0]"] ;
21 -> 59 ;
60 [label="gini = 0.0\nsamples = 1\nvalue = [0, 1]"] ;
2 -> 60 ;
61 [label="gini = 0.0\nsamples = 2\nvalue = [0, 2]"] ;
1 -> 61 ;
62 [label="thalach <= 0.845\ngini = 0.333\nsamples = 71\nvalue = [15, 56]"] ;
0 -> 62 [labeldistance=2.5, labelangle=-45, headlabel="False"] ;
63 [label="thalach <= -1.282\ngini = 0.306\nsamples = 69\nvalue = [13, 56]"] ;
62 -> 63 ;
64 [label="gini = 0.0\nsamples = 17\nvalue = [0, 17]"] ;
63 -> 64 ;
65 [label="thalach <= -1.09\ngini = 0.375\nsamples = 52\nvalue = [13, 39]"] ;
63 -> 65 ;
66 [label="gini = 0.0\nsamples = 3\nvalue = [3, 0]"] ;
65 -> 66 ;
67 [label="chol <= -0.337\ngini = 0.325\nsamples = 49\nvalue = [10, 39]"] ;
65 -> 67 ;
68 [label="thalach <= -0.133\ngini = 0.496\nsamples = 11\nvalue = [5, 6]"] ;
67 -> 68 ;
69 [label="chol <= -0.383\ngini = 0.245\nsamples = 7\nvalue = [1, 6]"] ;
68 -> 69 ;
70 [label="gini = 0.0\nsamples = 6\nvalue = [0, 6]"] ;
69 -> 70 ;
71 [label="gini = 0.0\nsamples = 1\nvalue = [1, 0]"] ;
69 -> 71 ;
72 [label="gini = 0.0\nsamples = 4\nvalue = [4, 0]"] ;
68 -> 72 ;
73 [label="age <= 1.561\ngini = 0.229\nsamples = 38\nvalue = [5, 33]"] ;
67 -> 73 ;
74 [label="chol <= 0.396\ngini = 0.157\nsamples = 35\nvalue = [3, 32]"] ;
73 -> 74 ;
75 [label="chol <= 0.38\ngini = 0.266\nsamples = 19\nvalue = [3, 16]"] ;
74 -> 75 ;
76 [label="trestbps <= -1.001\ngini = 0.111\nsamples = 17\nvalue = [1, 16]"] ;
75 -> 76 ;
77 [label="age <= -0.747\ngini = 0.444\nsamples = 3\nvalue = [1, 2]"] ;
76 -> 77 ;
78 [label="gini = 0.0\nsamples = 2\nvalue = [0, 2]"] ;
77 -> 78 ;
79 [label="gini = 0.0\nsamples = 1\nvalue = [1, 0]"] ;
77 -> 79 ;
80 [label="gini = 0.0\nsamples = 14\nvalue = [0, 14]"] ;
76 -> 80 ;
81 [label="gini = 0.0\nsamples = 2\nvalue = [2, 0]"] ;
75 -> 81 ;
82 [label="gini = 0.0\nsamples = 16\nvalue = [0, 16]"] ;
74 -> 82 ;
83 [label="chol <= 0.504\ngini = 0.444\nsamples = 3\nvalue = [2, 1]"] ;
73 -> 83 ;
84 [label="gini = 0.0\nsamples = 1\nvalue = [0, 1]"] ;
83 -> 84 ;
85 [label="gini = 0.0\nsamples = 2\nvalue = [2, 0]"] ;
83 -> 85 ;
86 [label="gini = 0.0\nsamples = 2\nvalue = [2, 0]"] ;
62 -> 86 ;
}