digraph Tree {
node [shape=box] ;
0 [label="exang <= 0.427\ngini = 0.464\nsamples = 238\nvalue = [151, 87]"] ;
1 [label="chol <= 3.527\ngini = 0.282\nsamples = 165\nvalue = [137, 28]"] ;
0 -> 1 [labeldistance=2.5, labelangle=45, headlabel="True"] ;
2 [label="age <= 1.882\ngini = 0.261\nsamples = 162\nvalue = [137, 25]"] ;
1 -> 2 ;
3 [label="sex M=1 F=0 <= -0.502\ngini = 0.254\nsamples = 161\nvalue = [137, 24]"] ;
2 -> 3 ;
4 [label="fbs <= 1.849\ngini = 0.111\nsamples = 51\nvalue = [48, 3]"] ;
3 -> 4 ;
5 [label="trestbps <= 1.276\ngini = 0.078\nsamples = 49\nvalue = [47, 2]"] ;
4 -> 5 ;
6 [label="age <= 0.984\ngini = 0.044\nsamples = 44\nvalue = [43, 1]"] ;
5 -> 6 ;
7 [label="gini = 0.0\nsamples = 40\nvalue = [40, 0]"] ;
6 -> 7 ;
8 [label="trestbps <= -0.432\ngini = 0.375\nsamples = 4\nvalue = [3, 1]"] ;
6 -> 8 ;
9 [label="gini = 0.0\nsamples = 1\nvalue = [0, 1]"] ;
8 -> 9 ;
10 [label="gini = 0.0\nsamples = 3\nvalue = [3, 0]"] ;
8 -> 10 ;
11 [label="chol <= -0.992\ngini = 0.32\nsamples = 5\nvalue = [4, 1]"] ;
5 -> 11 ;
12 [label="gini = 0.0\nsamples = 1\nvalue = [0, 1]"] ;
11 -> 12 ;
13 [label="gini = 0.0\nsamples = 4\nvalue = [4, 0]"] ;
11 -> 13 ;
14 [label="age <= 0.343\ngini = 0.5\nsamples = 2\nvalue = [1, 1]"] ;
4 -> 14 ;
15 [label="gini = 0.0\nsamples = 1\nvalue = [0, 1]"] ;
14 -> 15 ;
16 [label="gini = 0.0\nsamples = 1\nvalue = [1, 0]"] ;
14 -> 16 ;
17 [label="trestbps <= -0.773\ngini = 0.309\nsamples = 110\nvalue = [89, 21]"] ;
3 -> 17 ;
18 [label="trestbps <= -1.086\ngini = 0.484\nsamples = 17\nvalue = [10, 7]"] ;
17 -> 18 ;
19 [label="chol <= 0.064\ngini = 0.444\nsamples = 15\nvalue = [10, 5]"] ;
18 -> 19 ;
20 [label="chol <= -0.753\ngini = 0.219\nsamples = 8\nvalue = [7, 1]"] ;
19 -> 20 ;
21 [label="gini = 0.0\nsamples = 1\nvalue = [0, 1]"] ;
20 -> 21 ;
22 [label="gini = 0.0\nsamples = 7\nvalue = [7, 0]"] ;
20 -> 22 ;
23 [label="chol <= 0.265\ngini = 0.49\nsamples = 7\nvalue = [3, 4]"] ;
19 -> 23 ;
24 [label="gini = 0.0\nsamples = 2\nvalue = [0, 2]"] ;
23 -> 24 ;
25 [label="chol <= 0.426\ngini = 0.48\nsamples = 5\nvalue = [3, 2]"] ;
23 -> 25 ;
26 [label="gini = 0.0\nsamples = 2\nvalue = [2, 0]"] ;
25 -> 26 ;
27 [label="chol <= 0.982\ngini = 0.444\nsamples = 3\nvalue = [1, 2]"] ;
25 -> 27 ;
28 [label="gini = 0.0\nsamples = 2\nvalue = [0, 2]"] ;
27 -> 28 ;
29 [label="gini = 0.0\nsamples = 1\nvalue = [1, 0]"] ;
27 -> 29 ;
30 [label="gini = 0.0\nsamples = 2\nvalue = [0, 2]"] ;
18 -> 30 ;
31 [label="thalach <= -1.835\ngini = 0.256\nsamples = 93\nvalue = [79, 14]"] ;
17 -> 31 ;
32 [label="gini = 0.0\nsamples = 1\nvalue = [0, 1]"] ;
31 -> 32 ;
33 [label="age <= -0.939\ngini = 0.243\nsamples = 92\nvalue = [79, 13]"] ;
31 -> 33 ;
34 [label="chol <= -1.432\ngini = 0.071\nsamples = 27\nvalue = [26, 1]"] ;
33 -> 34 ;
35 [label="chol <= -1.532\ngini = 0.444\nsamples = 3\nvalue = [2, 1]"] ;
34 -> 35 ;
36 [label="gini = 0.0\nsamples = 2\nvalue = [2, 0]"] ;
35 -> 36 ;
37 [label="gini = 0.0\nsamples = 1\nvalue = [0, 1]"] ;
35 -> 37 ;
38 [label="gini = 0.0\nsamples = 24\nvalue = [24, 0]"] ;
34 -> 38 ;
39 [label="trestbps <= 0.849\ngini = 0.301\nsamples = 65\nvalue = [53, 12]"] ;
33 -> 39 ;
40 [label="thalach <= -0.346\ngini = 0.341\nsamples = 55\nvalue = [43, 12]"] ;
39 -> 40 ;
41 [label="chol <= -0.306\ngini = 0.459\nsamples = 14\nvalue = [9, 5]"] ;
40 -> 41 ;
42 [label="thalach <= -1.558\ngini = 0.49\nsamples = 7\nvalue = [3, 4]"] ;
41 -> 42 ;
43 [label="gini = 0.0\nsamples = 2\nvalue = [2, 0]"] ;
42 -> 43 ;
44 [label="gini = 0.32\nsamples = 5\nvalue = [1, 4]"] ;
42 -> 44 ;
45 [label="chol <= 0.072\ngini = 0.245\nsamples = 7\nvalue = [6, 1]"] ;
41 -> 45 ;
46 [label="gini = 0.0\nsamples = 5\nvalue = [5, 0]"] ;
45 -> 46 ;
47 [label="gini = 0.5\nsamples = 2\nvalue = [1, 1]"] ;
45 -> 47 ;
48 [label="trestbps <= 0.621\ngini = 0.283\nsamples = 41\nvalue = [34, 7]"] ;
40 -> 48 ;
49 [label="chol <= 0.588\ngini = 0.26\nsamples = 39\nvalue = [33, 6]"] ;
48 -> 49 ;
50 [label="gini = 0.213\nsamples = 33\nvalue = [29, 4]"] ;
49 -> 50 ;
51 [label="gini = 0.444\nsamples = 6\nvalue = [4, 2]"] ;
49 -> 51 ;
52 [label="thalach <= 0.569\ngini = 0.5\nsamples = 2\nvalue = [1, 1]"] ;
48 -> 52 ;
53 [label="gini = 0.0\nsamples = 1\nvalue = [0, 1]"] ;
52 -> 53 ;
54 [label="gini = 0.0\nsamples = 1\nvalue = [1, 0]"] ;
52 -> 54 ;
55 [label="gini = 0.0\nsamples = 10\nvalue = [10, 0]"] ;
39 -> 55 ;
56 [label="gini = 0.0\nsamples = 1\nvalue = [0, 1]"] ;
2 -> 56 ;
57 [label="gini = 0.0\nsamples = 3\nvalue = [0, 3]"] ;
1 -> 57 ;
58 [label="thalach <= 0.845\ngini = 0.31\nsamples = 73\nvalue = [14, 59]"] ;
0 -> 58 [labeldistance=2.5, labelangle=-45, headlabel="False"] ;
59 [label="chol <= -0.329\ngini = 0.281\nsamples = 71\nvalue = [12, 59]"] ;
58 -> 59 ;
60 [label="chol <= -0.376\ngini = 0.455\nsamples = 20\nvalue = [7, 13]"] ;
59 -> 60 ;
61 [label="thalach <= -0.133\ngini = 0.36\nsamples = 17\nvalue = [4, 13]"] ;
60 -> 61 ;
62 [label="gini = 0.0\nsamples = 11\nvalue = [0, 11]"] ;
61 -> 62 ;
63 [label="thalach <= 0.08\ngini = 0.444\nsamples = 6\nvalue = [4, 2]"] ;
61 -> 63 ;
64 [label="gini = 0.0\nsamples = 3\nvalue = [3, 0]"] ;
63 -> 64 ;
65 [label="chol <= -0.645\ngini = 0.444\nsamples = 3\nvalue = [1, 2]"] ;
63 -> 65 ;
66 [label="gini = 0.0\nsamples = 2\nvalue = [0, 2]"] ;
65 -> 66 ;
67 [label="gini = 0.0\nsamples = 1\nvalue = [1, 0]"] ;
65 -> 67 ;
68 [label="gini = 0.0\nsamples = 3\nvalue = [3, 0]"] ;
60 -> 68 ;
69 [label="trestbps <= 0.138\ngini = 0.177\nsamples = 51\nvalue = [5, 46]"] ;
59 -> 69 ;
70 [label="sex M=1 F=0 <= -0.502\ngini = 0.32\nsamples = 20\nvalue = [4, 16]"] ;
69 -> 70 ;
71 [label="chol <= 1.267\ngini = 0.5\nsamples = 4\nvalue = [2, 2]"] ;
70 -> 71 ;
72 [label="thalach <= -1.452\ngini = 0.444\nsamples = 3\nvalue = [2, 1]"] ;
71 -> 72 ;
73 [label="gini = 0.0\nsamples = 1\nvalue = [0, 1]"] ;
72 -> 73 ;
74 [label="gini = 0.0\nsamples = 2\nvalue = [2, 0]"] ;
72 -> 74 ;
75 [label="gini = 0.0\nsamples = 1\nvalue = [0, 1]"] ;
71 -> 75 ;
76 [label="trestbps <= -1.229\ngini = 0.219\nsamples = 16\nvalue = [2, 14]"] ;
70 -> 76 ;
77 [label="age <= -0.747\ngini = 0.5\nsamples = 2\nvalue = [1, 1]"] ;
76 -> 77 ;
78 [label="gini = 0.0\nsamples = 1\nvalue = [0, 1]"] ;
77 -> 78 ;
79 [label="gini = 0.0\nsamples = 1\nvalue = [1, 0]"] ;
77 -> 79 ;
80 [label="age <= 1.369\ngini = 0.133\nsamples = 14\nvalue = [1, 13]"] ;
76 -> 80 ;
81 [label="gini = 0.0\nsamples = 12\nvalue = [0, 12]"] ;
80 -> 81 ;
82 [label="age <= 1.817\ngini = 0.5\nsamples = 2\nvalue = [1, 1]"] ;
80 -> 82 ;
83 [label="gini = 0.0\nsamples = 1\nvalue = [1, 0]"] ;
82 -> 83 ;
84 [label="gini = 0.0\nsamples = 1\nvalue = [0, 1]"] ;
82 -> 84 ;
85 [label="age <= -0.042\ngini = 0.062\nsamples = 31\nvalue = [1, 30]"] ;
69 -> 85 ;
86 [label="thalach <= -0.495\ngini = 0.32\nsamples = 5\nvalue = [1, 4]"] ;
85 -> 86 ;
87 [label="gini = 0.0\nsamples = 1\nvalue = [1, 0]"] ;
86 -> 87 ;
88 [label="gini = 0.0\nsamples = 4\nvalue = [0, 4]"] ;
86 -> 88 ;
89 [label="gini = 0.0\nsamples = 26\nvalue = [0, 26]"] ;
85 -> 89 ;
90 [label="gini = 0.0\nsamples = 2\nvalue = [2, 0]"] ;
58 -> 90 ;
}